0.206169 
-0.195055 
0.154789 
0.168596 
0.270482 
-0.372204 
-0.248299 
0.141407 
-0.300002 
-0.051427 
-0.120343 
0.015984 
-0.221694 
-0.087939 
0.307007 
0.274576 
0.022141 
0.095567 
-0.422557 
-0.003728 
-0.535329 
-0.331402 
-0.426491 
0.173759 
-0.408989 
-0.189150 
-0.433189 
-0.452072 
0.349032 
-0.353569 
-0.088361 
0.205201 
0.001376 
-0.283571 
0.023797 
-0.078142 
-0.105775 
0.325498 
-0.286735 
0.144222 
-0.075930 
0.142923 
-0.189794 
0.252376 
-0.295016 
-0.232788 
0.176953 
0.277123 
-0.487220 
0.304394 
-0.076605 
-0.472550 
-0.377007 
0.046904 
0.251210 
-0.235996 
-0.492246 
-0.531979 
-0.138068 
-0.493214 
-0.335548 
0.323571 
0.261987 
0.215828 
-0.310001 
-0.064216 
-0.212314 
0.134224 
-0.088719 
0.050952 
-0.071555 
-0.514648 
-0.156126 
0.288651 
0.287729 
0.098857 
-0.294136 
0.114681 
0.025981 
-0.231356 
0.069075 
-0.400623 
-0.153906 
0.242068 
0.196281 
-0.252697 
-0.343929 
0.254035 
-0.234676 
0.068003 
0.310821 
-0.020224 
0.041574 
0.222808 
-0.154396 
0.281573 
-0.191407 
0.183290 
0.065797 
0.269875 
-0.115758 
-0.355758 
0.305227 
0.278115 
-0.417106 
0.242956 
0.026973 
-0.161242 
0.007636 
-0.297047 
0.157402 
-0.273288 
-0.147669 
-0.346504 
-0.381220 
-0.301389 
-0.049200 
-0.175149 
-0.397354 
0.266124 
-0.457146 
-0.436532 
-0.104100 
0.134428 
0.336277 
0.291504 
0.066000 
-0.205131 
0.124794 
-0.218202 
-0.285256 
-0.340964 
-0.023960 
-0.330028 
-0.412849 
0.108934 
-0.437073 
0.164123 
-0.402308 
0.120564 
-0.482923 
0.305094 
-0.502724 
-0.080593 
-0.391410 
-0.333944 
0.168018 
0.109389 
0.040908 
0.320664 
0.025512 
0.133761 
-0.465868 
-0.428588 
-0.081811 
-0.479591 
-0.487085 
-0.365811 
-0.134722 
0.187709 
-0.034013 
0.130023 
-0.503255 
-0.407974 
0.349995 
-0.366104 
0.250960 
-0.437079 
0.348019 
-0.501348 
0.233486 
-0.484904 
-0.546254 
0.280762 
-0.015497 
-0.387665 
-0.403181 
-0.197479 
0.271724 
0.187725 
-0.226814 
-0.052764 
-0.028513 
-0.142682 
0.068648 
-0.460324 
-0.072273 
0.131565 
-0.276134 
0.343005 
-0.030726 
0.239853 
0.123028 
0.016019 
-0.518121 
0.123023 
0.199915 
0.282839 
0.235944 
0.197934 
0.331491 
0.119430 
0.263029 
0.335236 
0.050192 
-0.102467 
-0.402429 
0.197011 
0.250054 
-0.480705 
0.034736 
-0.326760 
0.016532 
-0.343777 
0.080558 
-0.264820 
-0.254101 
-0.341715 
-0.483255 
0.019765 
-0.348710 
0.036019 
-0.090383 
0.324319 
-0.297962 
-0.058504 
0.097342 
-0.448047 
-0.125665 
-0.016714 
0.299886 
-0.144174 
-0.247284 
0.212916 
-0.158938 
-0.547092 
-0.239551 
-0.011367 
0.199919 
-0.339497 
0.057928 
-0.115345 
-0.116258 
-0.275540 
0.090878 
-0.385700 
0.009641 
-0.513222 
-0.177414 
0.076386 
0.056542 
0.023876 
-0.237596 
-0.383840 
-0.001805 
0.014442 
1.000000 
1.000000 
1.000000 
1.000000 
1.000000 
1.000000 
1.000000 
1.000000 
1.000000 
-1.000000 
-1.000000 
-1.000000 
-1.000000 
-1.000000 
1.000000 
1.000000 
1.000000 
-1.000000 
1.000000 
1.000000 
1.000000 
1.000000 
-1.000000 
1.000000 
1.000000 
-1.000000 
1.000000 
1.000000 
1.000000 
-1.000000 
1.000000 
1.000000 
1.000000 
-1.000000 
-1.000000 
-1.000000 
-1.000000 
1.000000 
1.000000 
1.000000 
1.000000 
-1.000000 
1.000000 
1.000000 
1.000000 
1.000000 
-1.000000 
1.000000 
1.000000 
-1.000000 
-1.000000 
-1.000000 
-1.000000 
-1.000000 
1.000000 
1.000000 
1.000000 
1.000000 
1.000000 
1.000000 
1.000000 
1.000000 
1.000000 
1.000000 
1.000000 
1.000000 
1.000000 
1.000000 
1.000000 
1.000000 
1.000000 
1.000000 
1.000000 
1.000000 
-1.000000 
-1.000000 
-1.000000 
-1.000000 
1.000000 
1.000000 
1.000000 
-1.000000 
1.000000 
1.000000 
1.000000 
1.000000 
-1.000000 
1.000000 
1.000000 
-1.000000 
-1.000000 
-1.000000 
-1.000000 
-1.000000 
-1.000000 
1.000000 
1.000000 
-1.000000 
1.000000 
1.000000 
1.000000 
1.000000 
-1.000000 
1.000000 
1.000000 
-1.000000 
1.000000 
1.000000 
1.000000 
1.000000 
-1.000000 
1.000000 
1.000000 
-1.000000 
1.000000 
1.000000 
1.000000 
1.000000 
-1.000000 
1.000000 
1.000000 
1.000000 
1.000000 
1.000000 
1.000000 
1.000000 
1.000000 
1.000000 
1.000000 
1.000000 
1.000000 
1.000000 
1.000000 
1.000000 
1.000000 
1.000000 
1.000000 
1.000000 
-1.000000 
-1.000000 
-1.000000 
-1.000000 
1.000000 
1.000000 
1.000000 
1.000000 
1.000000 
1.000000 
1.000000 
1.000000 
1.000000 
1.000000 
1.000000 
-1.000000 
-1.000000 
-1.000000 
-1.000000 
-1.000000 
-1.000000 
1.000000 
1.000000 
-1.000000 
1.000000 
1.000000 
1.000000 
1.000000 
-1.000000 
1.000000 
1.000000 
-1.000000 
1.000000 
1.000000 
1.000000 
1.000000 
-1.000000 
1.000000 
1.000000 
1.000000 
1.000000 
1.000000 
1.000000 
1.000000 
1.000000 
1.000000 
1.000000 
1.000000 
1.000000 
1.000000 
1.000000 
1.000000 
1.000000 
1.000000 
-0.322350 
-0.570435 
-0.307553 
-0.662385 
-0.422491 
-0.421211 
-0.471572 
-0.188137 
-0.501072 
-0.245708 
-0.309576 
-0.068606 
-0.221875 
-0.140651 
-0.214092 
-0.467280 
-0.248182 
-0.668010 
-0.322275 
-0.118261 
-0.266187 
-0.250278 
-0.331753 
-0.409045 
-0.434340 
-0.200301 
-0.145826 
-0.227238 
-0.571649 
-0.650368 
-0.630248 
-0.222047 
-0.548855 
-0.265852 
-0.212482 
-0.299396 
-0.671212 
-0.668204 
-0.471683 
-0.500333 
-0.241963 
-0.109309 
-0.553091 
-0.447988 
-0.234108 
-0.095233 
-0.243317 
-0.466440 
-0.091292 
-0.549742 
-0.568851 
-0.341628 
-0.128072 
-0.228653 
-0.078724 
-0.546561 
-0.413105 
-0.208699 
-0.101849 
-0.312803 
-0.187119 
-0.060146 
-0.519001 
-0.064024 
-0.233498 
0.044963 
-0.275078 
-0.232678 
0.049125 
-0.052558 
-0.041993 
-0.202112 
-0.156400 
0.090074 
0.046736 
-0.398910 
0.001871 
-0.206005 
-0.170565 
-0.081952 
-0.070218 
-0.056011 
-0.443930 
-0.194908 
-0.292459 
-0.513790 
-0.055588 
-0.004854 
0.000932 
-0.151142 
-0.334800 
-0.189366 
-0.200361 
-0.164856 
-0.242892 
-0.527359 
-0.213393 
-0.611470 
-0.124537 
-0.257768 
-0.028528 
-0.260029 
-0.553379 
-0.278429 
-0.263455 
-0.600144 
-0.041838 
-0.355084 
-0.170649 
-0.305903 
-0.530537 
-0.334366 
-0.455413 
-0.338967 
-0.622774 
-0.112372 
-0.217257 
-0.042862 
-0.210724 
-0.309824 
-0.287504 
0.089975 
-0.592691 
-0.581364 
-0.168382 
-0.200083 
-0.473223 
-0.475275 
-0.176053 
0.037741 
-0.097543 
-0.298081 
-0.315789 
-0.015423 
0.058990 
0.056256 
0.019933 
-0.076346 
-0.392328 
-0.244214 
-0.475750 
-0.287366 
0.056919 
-0.295663 
0.009167 
0.069645 
-0.501536 
-0.301590 
-0.066716 
-0.076759 
0.024087 
-0.447720 
-0.080285 
0.066895 
-0.393584 
-0.342166 
-0.226689 
-0.231307 
-0.181940 
-0.496241 
-0.287066 
-0.372984 
-0.158821 
0.032646 
-0.481905 
-0.193331 
-0.004598 
-0.555472 
-0.363178 
-0.490426 
-0.164187 
-0.203427 
-0.142292 
-0.200768 
-0.592591 
-0.226625 
-0.224624 
-0.458626 
-0.621714 
-0.384840 
-0.628886 
0.037872 
-0.197060 
-0.073670 
0.011266 
0.044856 
-0.509336 
-0.308921 
-0.279951 
-0.055777 
-0.169663 
0.068483 
-0.469178 
-0.357760 
0.119586 
-0.298518 
0.133539 
0.010587 
-0.209597 
-0.373881 
0.171778 
-0.495916 
0.106200 
-0.090213 
-0.012881 
0.153877 
-0.445907 
-0.366350 
-0.459597 
-0.430589 
-0.087839 
-0.452246 
-0.492398 
-0.410683 
0.172010 
-0.583769 
-0.464732 
-0.497809 
-0.220903 
-0.069679 
0.146329 
-0.513306 
-0.097476 
-0.537849 
-0.276066 
-0.192891 
-0.241366 
-0.357527 
-0.397304 
0.144037 
-0.136407 
-0.440526 
-0.566880 
-0.245206 
0.064263 
0.015240 
-0.306329 
0.213356 
-0.566111 
-0.170926 
-0.432233 
-0.058948 
-0.028173 
-0.329631 
0.125368 
-0.071163 
-0.318399 
-0.554364 
0.026028 
0.055697 
-0.029042 
-0.042643 
0.137391 
-0.341519 
0.014508 
-0.353674 
0.060591 
-0.441858 
-0.116200 
-0.551715 
-0.512822 
-0.467608 
-0.397239 
-0.484701 
-0.117814 
-0.547978 
0.125538 
0.170857 
-0.549622 
0.154428 
-0.215070 
-0.386855 
-0.119521 
-0.458242 
-0.121486 
-0.209152 
0.065595 
0.155115 
-0.168516 
-0.123378 
-0.004188 
-0.412559 
-0.381021 
-0.081796 
-0.159078 
-0.581513 
0.159529 
-0.313488 
-0.428371 
-0.171671 
-0.270202 
-0.346194 
-0.044277 
-0.072441 
-0.235895 
-0.377092 
-0.025420 
-0.325357 
-0.421235 
0.019958 
-0.385929 
-0.041305 
-0.581897 
0.089550 
0.095453 
-0.108382 
-0.334603 
-0.053952 
-0.168268 
0.091880 
-0.392330 
-0.387456 
-0.535679 
-0.178350 
0.125749 
-0.099757 
-0.164863 
0.070278 
0.181755 
0.001765 
-0.240437 
-0.226052 
-0.510476 
-0.528523 
-0.545432 
-0.111471 
-0.286403 
0.087436 
0.188131 
-0.093331 
-0.129276 
-0.479568 
-0.378114 
-0.114717 
0.281043 
-0.510944 
-0.474030 
-0.329628 
0.090220 
0.000117 
-0.466428 
0.315408 
0.230722 
-0.400515 
-0.121648 
0.131554 
0.149755 
-0.543718 
-0.029248 
0.112816 
0.119354 
0.280315 
-0.463236 
0.158878 
0.301791 
-0.458668 
-0.302593 
-0.334611 
0.178769 
-0.464461 
0.122057 
-0.300507 
-0.394029 
0.293943 
0.134776 
-0.462987 
0.332998 
0.210746 
-0.242614 
0.073217 
-0.139137 
-0.159042 
0.038626 
-0.258415 
-0.009557 
-0.433022 
-0.476862 
-0.209803 
-0.426740 
0.043890 
-0.446987 
0.242615 
-0.025795 
-0.360223 
0.051493 
-0.074004 
-0.268891 
0.298900 
0.141385 
-0.440123 
-0.515562 
-0.086558 
-0.190630 
-0.359592 
-0.142615 
-0.405854 
-0.272578 
-0.159618 
-0.545108 
0.034808 
-0.436400 
-0.134246 
-0.474234 
0.152225 
0.157339 
0.066209 
0.269204 
0.230477 
-0.493593 
-0.507535 
-0.075633 
-0.390580 
0.285079 
-0.451427 
-0.200804 
-0.013428 
0.024568 
0.080306 
-0.064528 
-0.184047 
0.190183 
-0.030090 
0.279396 
-0.350447 
0.160320 
-0.213219 
-0.206301 
-0.462258 
0.177163 
-0.201409 
0.122549 
0.290763 
0.214345 
0.198316 
0.092989 
0.021684 
-0.085475 
0.012192 
-0.097839 
-0.029068 
0.054657 
-0.523472 
0.130351 
-0.010264 
-0.424899 
-0.420452 
-0.373692 
0.149669 
0.209853 
0.111780 
-0.384378 
0.050036 
-0.268309 
-0.454982 
0.249590 
-0.457990 
-0.118201 
-0.306711 
-0.370248 
-0.291038 
0.041879 
0.302301 
-0.350274 
-0.093776 
0.150617 
0.292714 
-0.422093 
-0.284859 
-0.045094 
0.030068 
0.236073 
-0.340437 
0.056596 
0.016423 
0.199299 
0.181697 
0.145971 
-0.524392 
-0.018634 
0.005824 
0.137388 
0.146989 
-0.294140 
-0.480922 
0.242008 
-0.394550 
-0.388912 
-0.226193 
-0.151261 
-0.209161 
0.032770 
-0.459383 
-0.256860 
0.232496 
-0.003160 
-0.456243 
0.175210 
0.124747 
-0.191103 
-0.219884 
-0.195185 
-0.305030 
-0.010320 
-0.488588 
0.261394 
-0.161021 
0.243109 
0.057365 
-0.135413 
-0.125525 
-0.286811 
-0.348027 
-0.328536 
-0.030951 
-0.278948 
-0.436528 
0.124499 
-0.117861 
-0.112721 
-0.376763 
0.222979 
-0.429951 
-0.286146 
-0.383881 
-0.547455 
0.260695 
-0.290123 
0.177755 
0.035442 
0.068774 
-0.392128 
-0.509744 
0.313744 
0.147552 
-0.448332 
0.225139 
-0.363469 
0.344776 
-0.067497 
0.051117 
-0.130748 
0.195691 
0.253092 
0.090715 
-0.185260 
-0.375856 
0.204187 
-0.410760 
0.056283 
-0.258533 
-0.237524 
-0.070737 
-0.138484 
0.026331 
0.095383 
-0.135940 
-0.062974 
-0.544741 
-0.308184 
-0.377533 
0.074033 
-0.150313 
-0.337276 
0.037778 
-0.352760 
-0.235608 
-0.087083 
-0.166229 
-0.240832 
-0.504581 
-0.465112 
0.178419 
0.241112 
0.337980 
-0.080865 
-0.294148 
-0.387878 
-0.226678 
-0.154909 
0.218406 
0.064788 
0.157568 
-0.202331 
-0.423696 
-0.166101 
-0.456949 
-0.009636 
0.320925 
-0.451690 
0.232181 
-0.406608 
0.172344 
-0.268132 
-0.193884 
-0.139879 
-0.070892 
0.120507 
0.323038 
0.312878 
-0.470325 
-0.531543 
-0.502234 
0.258095 
0.259569 
-0.514255 
-0.172770 
-0.384579 
-0.352132 
0.150552 
0.010512 
-0.483726 
-0.134660 
-0.181920 
-0.136058 
-0.008356 
0.201980 
-0.043006 
-0.367991 
0.172904 
0.055304 
-0.485810 
0.316296 
-0.122352 
-0.203942 
-0.227589 
0.287769 
0.275166 
-0.457080 
0.260806 
0.238044 
-0.377405 
0.279265 
0.285810 
-0.469310 
0.188833 
0.321555 
-0.092081 
-0.545747 
-0.380577 
-0.291530 
0.014766 
-0.314303 
0.123810 
-0.517154 
0.099640 
-0.234545 
0.234825 
-0.293366 
-0.052536 
0.057729 
0.311938 
0.011654 
0.024025 
-0.160414 
-0.542288 
0.346438 
-0.222646 
0.282878 
-0.460644 
-0.311838 
0.170922 
-0.288049 
-0.382574 
0.106732 
-0.207359 
-0.543741 
0.078286 
0.250560 
-0.539487 
0.247710 
-0.390970 
0.025279 
-0.416593 
0.282841 
0.058125 
0.233048 
-0.301704 
-0.057049 
-0.410318 
0.195760 
-0.349320 
-0.448380 
-0.142587 
0.224706 
-0.058794 
-0.134875 
0.221143 
0.268561 
-0.201998 
0.310500 
-0.393278 
-0.381076 
-0.327549 
-0.225852 
0.275656 
0.015092 
-0.219594 
0.003942 
-0.084348 
-0.209081 
-0.098348 
0.074682 
-0.533802 
0.035059 
0.007523 
0.074323 
-0.081894 
0.255819 
-0.332727 
0.057788 
0.101578 
-0.132046 
0.159408 
-0.391010 
-0.257341 
-0.249386 
0.024115 
-0.386197 
-0.330825 
-0.527882 
-0.425697 
-0.174103 
-0.358958 
-0.203246 
0.150045 
-0.433303 
-0.538155 
-0.419549 
0.120639 
-0.072503 
-0.078630 
-0.327709 
-0.347821 
-0.062431 
0.257349 
0.209702 
-0.338108 
-0.174543 
0.115520 
-0.120835 
-0.466755 
-0.132902 
0.297119 
0.242652 
0.026088 
-0.310222 
-0.356733 
-0.299796 
-0.146419 
-0.137558 
-0.277678 
-0.022117 
0.238339 
-0.086636 
0.324636 
0.038384 
0.030061 
0.336482 
0.168835 
-0.199300 
-0.086021 
-0.259794 
0.022990 
0.116157 
0.227775 
-0.069659 
-0.024141 
-0.460334 
0.305797 
-0.258621 
-0.031169 
-0.510959 
0.158477 
-0.084050 
0.281694 
-0.165435 
0.155728 
-0.425039 
0.084770 
-0.340692 
-0.012598 
-0.542908 
0.187192 
-0.124260 
-0.079544 
0.161828 
-0.435876 
-0.399483 
0.148309 
0.282960 
-0.048783 
-0.287712 
-0.326834 
-0.375792 
-0.521555 
-0.449059 
0.104548 
0.004305 
-0.359393 
0.060345 
0.295684 
0.159438 
0.099386 
0.104161 
-0.274612 
0.031080 
-0.411273 
-0.468883 
0.156040 
0.223497 
-0.259575 
-0.206557 
0.230589 
-0.422384 
0.219183 
-0.198955 
0.289444 
0.333308 
-0.048438 
0.087754 
0.266268 
-0.447221 
-0.549958 
-0.410566 
-0.273013 
-0.521512 
-0.309625 
-0.518465 
0.032793 
-0.119018 
0.091880 
-0.021523 
-0.309579 
-0.158734 
-0.267361 
-0.034190 
-0.477654 
-0.128633 
0.046927 
0.228386 
-0.255137 
0.337351 
-0.328172 
-0.374547 
-0.435031 
-0.458988 
-0.023502 
-0.495587 
-0.475681 
-0.421940 
0.142167 
0.340587 
-0.319160 
0.142209 
-0.419979 
-0.042173 
0.170697 
-0.179604 
-0.010638 
-0.146510 
0.251378 
-0.268758 
-0.518033 
-0.408201 
0.122508 
-0.235394 
0.107609 
0.194853 
0.185972 
-0.195465 
0.073239 
-0.419164 
-0.208113 
0.295067 
-0.243711 
-0.093145 
-0.513922 
0.282786 
-0.038732 
-0.439602 
-0.489153 
-0.246565 
-0.449015 
-0.258314 
-0.454355 
-0.318994 
0.249513 
0.266341 
0.051403 
-0.111125 
-0.230168 
-0.047220 
0.170116 
-0.198201 
0.094579 
-0.057376 
0.116406 
-0.147812 
-0.212523 
-0.047622 
0.206724 
-0.489284 
0.083214 
-0.351389 
-0.544217 
-0.510498 
0.105466 
-0.508138 
0.322289 
-0.283265 
-0.397741 
-0.516864 
0.020170 
-0.296756 
-0.225177 
0.115815 
-0.065750 
-0.325664 
0.032156 
-0.364348 
0.113211 
-0.548012 
0.138433 
-0.066673 
-0.196213 
-0.116988 
-0.474049 
-0.429807 
0.285200 
-0.136571 
0.072570 
0.141924 
-0.075856 
-0.194216 
0.340535 
-0.070072 
-0.154714 
0.096001 
-0.028211 
-0.182425 
-0.537265 
0.124048 
-0.149289 
0.032905 
-0.522708 
0.175534 
-0.201281 
-0.038459 
-0.500130 
-0.519124 
0.147193 
0.163080 
-0.517136 
-0.064374 
-0.253592 
-0.163348 
-0.531363 
-0.177641 
-0.043155 
0.303837 
0.235787 
-0.320585 
0.095761 
-0.190068 
0.035200 
0.086295 
0.289858 
-0.469513 
-0.167703 
-0.088353 
-0.101938 
-0.154968 
-0.314305 
0.298773 
-0.472064 
-0.287014 
0.124307 
-0.123343 
0.224528 
0.174177 
-0.092468 
0.021721 
-0.012743 
-0.059604 
-0.392653 
0.283665 
0.327049 
-0.374016 
-0.243977 
-0.066106 
-0.420179 
-0.358190 
0.163309 
0.225583 
0.001741 
-0.151490 
-0.038121 
-0.058400 
-0.071004 
0.344175 
-0.496753 
-0.522941 
-0.160793 
-0.261058 
0.325832 
-0.082857 
0.001929 
0.100139 
0.343799 
-0.123543 
-0.075685 
-0.098668 
-0.451822 
-0.438428 
-0.508272 
-0.294475 
-0.504763 
-0.531222 
-0.118491 
-0.198740 
-0.047328 
0.011331 
-0.006930 
-0.234019 
-0.113086 
-0.355189 
0.164490 
-0.501207 
0.136411 
-0.256513 
-0.507032 
0.189658 
-0.229454 
-0.117826 
-0.421400 
-0.253622 
0.349317 
0.130529 
-0.503483 
0.343117 
-0.343014 
-0.029168 
-0.105552 
-0.244836 
0.082405 
-0.063823 
0.010689 
0.127641 
-0.045046 
-0.457801 
-0.421098 
-0.442374 
0.103530 
0.121972 
-0.126393 
-0.359556 
0.316783 
-0.311902 
-0.310764 
0.103194 
-0.018416 
-0.267796 
-0.057148 
0.302130 
0.164378 
0.071452 
-0.301492 
0.163695 
-0.148020 
-0.254975 
0.156811 
0.058965 
0.265856 
-0.298740 
-0.535871 
-0.001739 
0.187437 
0.024818 
-0.224097 
-0.207609 
0.117017 
-0.095195 
-0.099983 
-0.129453 
-0.323223 
0.323624 
0.060990 
-0.356441 
-0.338280 
0.300227 
0.296753 
0.193306 
-0.317569 
-0.110395 
0.145435 
-0.503191 
-0.388943 
-0.506057 
0.210505 
0.013036 
-0.211032 
0.017316 
-0.277997 
-0.295176 
0.268576 
-0.263868 
0.253086 
0.106013 
0.310950 
-0.321011 
-0.451597 
0.077967 
0.133794 
-0.001580 
-0.401486 
-0.539429 
-0.027957 
0.209505 
-0.345870 
0.183765 
0.159731 
-0.399117 
0.027069 
-0.507838 
0.040488 
-0.177495 
-0.461028 
0.201545 
-0.133552 
0.299477 
-0.135419 
0.205416 
-0.033207 
0.136584 
-0.439760 
-0.114632 
-0.477285 
-0.536674 
-0.358620 
-0.516335 
-0.307685 
-0.260216 
0.111632 
-0.523890 
0.288204 
0.260147 
-0.513320 
-0.089753 
0.119650 
-0.309190 
-0.255988 
-0.070618 
-0.158306 
0.321081 
-0.028455 
-0.467817 
-0.206414 
0.060516 
0.283728 
0.210034 
0.009993 
-0.201690 
0.065450 
-0.373215 
-0.415106 
0.175690 
0.062153 
-0.342391 
0.189016 
0.253533 
-0.308724 
-0.468669 
-0.356683 
-0.547092 
-0.442559 
-0.418478 
0.263055 
-0.405879 
0.041770 
0.032705 
-0.165068 
0.335782 
-0.387914 
0.226626 
0.306863 
0.133631 
0.308809 
-0.249551 
-0.155852 
0.242536 
-0.389517 
-0.495860 
-0.309154 
0.225932 
-0.319075 
-0.174260 
0.051622 
0.293079 
0.033350 
-0.109363 
0.196612 
0.274625 
-0.028031 
-0.510071 
0.277534 
0.079410 
-0.378549 
0.190587 
0.223531 
0.213221 
-0.126707 
-0.291537 
0.199002 
0.035379 
-0.414911 
0.155865 
-0.089989 
-0.395669 
-0.381874 
0.347953 
0.484927 
-0.203560 
0.408109 
-0.247465 
-0.341413 
-0.335308 
0.170024 
0.327056 
-0.398554 
-0.181809 
-0.183347 
0.431014 
-0.265559 
0.396618 
0.475380 
-0.346077 
0.095963 
-0.334118 
0.476798 
-0.044558 
-0.486095 
-0.052877 
0.242623 
0.346130 
-0.402456 
0.392721 
0.130424 
0.007555 
0.497052 
0.248551 
-0.144492 
0.481980 
-0.455009 
-0.236383 
-0.265486 
-0.296422 
-0.071691 
0.404539 
-0.469366 
0.029754 
-0.277271 
-0.152713 
-0.039232 
-0.042829 
-0.256095 
-0.063851 
0.111093 
0.339868 
0.102030 
0.087891 
-0.204691 
0.115935 
-0.464986 
-0.462068 
-0.037935 
-0.367442 
0.430653 
-0.407511 
0.140113 
0.427706 
0.341040 
0.495620 
0.409686 
0.386031 
-0.240763 
-0.355800 
-0.410391 
0.187545 
-0.451261 
-0.379757 
-0.282700 
-0.228532 
-0.032471 
0.178068 
0.228638 
0.211434 
-0.385784 
-0.160268 
0.051302 
0.216247 
0.427623 
0.346611 
-0.167818 
0.462637 
0.384543 
0.294247 
-0.404806 
0.315197 
0.386736 
0.235307 
0.242903 
0.227776 
0.230928 
0.152588 
0.113807 
0.490165 
0.296788 
0.203416 
0.177710 
0.345527 
0.323659 
0.395010 
-0.383005 
-0.208812 
0.073077 
0.345633 
-0.497377 
0.187294 
-0.314635 
0.053925 
-0.096459 
-0.387012 
-0.099464 
0.235723 
-0.424375 
-0.214920 
0.029970 
-0.329181 
-0.399724 
-0.083294 
0.406126 
0.343179 
-0.355518 
0.137054 
-0.004233 
0.258290 
0.127218 
-0.207445 
-0.038294 
-0.195071 
-0.361918 
-0.214635 
-0.300062 
-0.244924 
0.076553 
0.273016 
-0.399291 
0.079176 
-0.039691 
-0.213926 
-0.366900 
0.363850 
-0.100938 
0.033636 
0.099573 
-0.025313 
0.318716 
-0.370458 
0.145507 
0.418992 
0.046248 
0.051633 
0.262171 
0.190731 
-0.311313 
-0.242061 
-0.050980 
0.315905 
0.050494 
0.410726 
-0.379166 
0.188576 
-0.303909 
-0.179228 
0.443652 
0.272644 
-0.406212 
-0.455638 
-0.148181 
0.054097 
-0.169564 
-0.015081 
-0.082053 
0.229499 
-0.481444 
-0.482480 
-0.295814 
0.337272 
-0.352938 
0.349692 
0.256264 
0.193311 
-0.098675 
0.018436 
-0.115959 
0.090012 
0.276374 
0.333062 
-0.094083 
-0.173132 
0.243788 
0.026751 
-0.484556 
0.439879 
0.347523 
0.459096 
0.212522 
0.441311 
-0.496542 
-0.435658 
-0.004592 
-0.166106 
0.049261 
0.413355 
-0.436607 
0.067817 
0.430875 
-0.232422 
-0.094911 
-0.422063 
-0.382729 
-0.338647 
0.271248 
0.018596 
0.179788 
-0.344711 
-0.391392 
-0.043838 
0.488351 
0.014525 
0.283031 
0.232138 
-0.458724 
0.298474 
0.172017 
0.388799 
0.257571 
-0.115461 
0.330110 
0.261029 
-0.051119 
-0.174482 
-0.405077 
0.498142 
-0.261127 
-0.341684 
0.065959 
-0.330252 
-0.074106 
0.471047 
-0.252315 
0.043165 
-0.367600 
-0.481067 
-0.438239 
0.312189 
-0.325778 
-0.329632 
-0.231649 
-0.337427 
0.184893 
-0.448618 
0.394711 
0.226169 
0.349856 
0.066728 
0.114968 
0.107427 
0.451267 
-0.054921 
-0.131545 
-0.099852 
0.270597 
-0.036622 
-0.101710 
-0.490530 
0.121694 
0.464248 
-0.320782 
-0.452412 
0.435296 
-0.073096 
0.090753 
-0.432304 
-0.054164 
0.152514 
0.379885 
0.120058 
0.322882 
-0.351764 
0.282631 
0.007775 
-0.300383 
0.177342 
-0.266056 
-0.450527 
-0.255931 
0.348912 
0.156900 
-0.304664 
-0.206009 
-0.474645 
0.095484 
-0.435412 
-0.011267 
0.493774 
-0.425942 
-0.389573 
0.458022 
-0.246724 
-0.341985 
0.393318 
0.180180 
0.248768 
0.461014 
-0.373984 
-0.098718 
0.340899 
0.246074 
-0.275836 
0.489134 
0.028705 
0.231938 
-0.311248 
-0.293953 
0.465882 
-0.261775 
-0.049883 
0.314794 
0.395125 
0.145453 
-0.391215 
0.420479 
-0.259063 
-0.326627 
-0.090787 
-0.265289 
-0.252569 
0.019640 
-0.307266 
0.000707 
0.177655 
-0.413948 
-0.319114 
-0.073577 
-0.452934 
-0.193098 
0.327705 
0.387964 
-0.447023 
-0.448131 
0.377099 
0.081682 
0.283807 
-0.434149 
0.287729 
0.249690 
-0.195925 
-0.262154 
0.064484 
-0.300800 
0.383299 
0.173269 
-0.380321 
-0.375764 
0.346642 
0.028892 
-0.141052 
-0.405927 
-0.451468 
0.051681 
0.094779 
0.226187 
0.137733 
0.275665 
-0.347390 
0.184799 
-0.417432 
0.480315 
0.072763 
-0.364455 
-0.467816 
-0.050138 
0.217227 
0.315991 
0.015712 
0.004956 
0.065681 
0.319788 
0.242802 
-0.369835 
-0.481012 
0.126101 
0.303434 
-0.361333 
0.250337 
0.150077 
0.167559 
-0.390715 
0.244149 
0.216091 
0.160966 
-0.161071 
-0.057722 
-0.201302 
-0.385406 
0.094888 
0.483497 
-0.302838 
0.075203 
0.056260 
-0.167294 
0.107387 
-0.493878 
-0.450067 
-0.076622 
0.021834 
0.054889 
0.489059 
-0.158378 
-0.202309 
-0.380776 
-0.139390 
0.423792 
0.422658 
-0.000722 
0.174129 
0.072735 
-0.333163 
0.283413 
-0.183116 
0.382928 
-0.055621 
0.155813 
-0.174794 
0.243078 
0.270407 
0.420094 
0.226575 
0.467568 
-0.004703 
-0.217165 
-0.199725 
-0.397317 
-0.211043 
-0.149793 
0.026061 
0.310791 
0.405096 
0.015120 
-0.347587 
-0.297213 
0.134344 
0.013024 
-0.373421 
0.057002 
-0.487699 
0.300708 
-0.370263 
-0.320862 
0.084121 
-0.053378 
-0.437933 
-0.471500 
-0.397566 
-0.112727 
0.271578 
0.372841 
-0.192634 
-0.001847 
0.340409 
0.302663 
0.280987 
-0.359316 
0.405346 
-0.430056 
-0.009109 
-0.068593 
0.380735 
-0.104012 
0.446527 
-0.466852 
0.098775 
0.080872 
0.046172 
0.225354 
-0.362126 
0.058473 
0.026062 
-0.232389 
0.237611 
-0.389817 
0.214233 
0.299678 
-0.361316 
0.316667 
-0.313049 
0.410262 
0.189509 
-0.005683 
-0.091586 
0.029918 
-0.203020 
-0.310599 
0.170602 
-0.297674 
-0.240655 
-0.338506 
0.133734 
-0.359920 
0.057481 
0.080261 
-0.326772 
-0.343743 
-0.338867 
0.219400 
0.381611 
-0.200993 
-0.222127 
-0.092327 
0.066618 
-0.484516 
0.017856 
-0.219149 
0.315162 
0.156539 
-0.402481 
-0.497887 
0.066801 
0.287027 
-0.003570 
0.475215 
-0.183055 
0.293410 
-0.335383 
0.487547 
0.495737 
-0.076038 
-0.350959 
0.129471 
0.064042 
0.206522 
-0.290268 
0.237270 
0.362779 
-0.129135 
-0.043330 
0.244390 
0.169871 
0.234543 
-0.347938 
-0.263510 
0.250027 
0.169918 
0.017341 
0.065189 
-0.173542 
0.114859 
0.067302 
0.393259 
-0.098114 
-0.436267 
0.368474 
0.218831 
0.357143 
-0.466909 
0.206378 
0.352880 
-0.042948 
0.355419 
-0.017650 
-0.478906 
0.061941 
0.192082 
0.258364 
-0.075280 
-0.437053 
-0.284967 
-0.330891 
0.232818 
0.449576 
-0.178829 
0.469308 
0.199603 
0.491090 
-0.013352 
-0.235207 
-0.182452 
-0.398493 
0.332095 
-0.289194 
0.003394 
0.395828 
-0.420719 
-0.277775 
0.252971 
-0.387629 
0.428603 
0.105850 
0.069424 
0.284022 
-0.411799 
0.090518 
-0.154037 
0.280283 
-0.151119 
0.270682 
0.343230 
0.063915 
0.439791 
0.076048 
0.013491 
-0.239037 
0.045356 
-0.286906 
-0.247947 
-0.467996 
-0.022113 
0.069600 
-0.366488 
-0.190018 
0.280407 
0.136905 
-0.294191 
0.359687 
0.359130 
0.458780 
0.472059 
0.287733 
0.064630 
0.041482 
0.071755 
0.152831 
-0.368000 
0.417717 
-0.066886 
-0.019119 
0.188399 
-0.223656 
-0.455204 
0.128191 
0.352391 
0.058287 
0.389154 
-0.102253 
0.271381 
-0.358793 
-0.070249 
-0.250733 
0.210807 
0.063263 
0.059249 
-0.008786 
-0.299832 
0.265058 
-0.149099 
-0.440702 
0.223838 
-0.177040 
0.347031 
-0.211532 
0.364442 
-0.081215 
0.441299 
0.496442 
-0.163498 
-0.125587 
-0.022677 
-0.475098 
0.150757 
0.022119 
0.153093 
0.003148 
-0.419595 
0.042247 
0.400895 
0.351786 
0.183453 
-0.169353 
-0.398946 
-0.105740 
0.393909 
0.160302 
0.385474 
-0.405923 
-0.074639 
-0.263625 
-0.346625 
-0.350801 
0.059335 
-0.499594 
-0.062333 
-0.076223 
-0.080809 
-0.121034 
-0.079782 
0.255693 
0.253379 
0.397541 
0.280595 
-0.095864 
-0.080340 
-0.066313 
0.407284 
0.000065 
0.475934 
0.308179 
-0.148149 
0.159387 
-0.361174 
-0.047095 
-0.446353 
-0.467265 
-0.386793 
0.439121 
-0.373188 
0.038568 
-0.324504 
-0.219813 
0.187766 
0.234831 
-0.219407 
-0.374567 
-0.341393 
0.199784 
0.004399 
0.078825 
-0.044523 
-0.242222 
-0.023634 
-0.263929 
0.161914 
0.396026 
0.169759 
0.069198 
-0.103909 
0.145693 
-0.122623 
0.247942 
-0.194920 
0.016203 
-0.299153 
-0.141273 
0.048938 
-0.185946 
-0.202151 
0.175750 
0.352622 
-0.026655 
0.455938 
0.040389 
-0.291825 
-0.263469 
0.165822 
-0.133217 
0.436315 
-0.329779 
0.445608 
-0.108208 
-0.072001 
-0.078025 
0.127863 
-0.410086 
-0.182000 
-0.202378 
0.159112 
0.214091 
0.443315 
-0.463511 
-0.037967 
-0.251605 
0.052692 
0.162880 
0.107122 
-0.398370 
0.476935 
0.404971 
0.277380 
0.329557 
-0.121684 
0.233318 
-0.130054 
0.086491 
0.469849 
-0.464233 
0.453274 
0.406164 
-0.294011 
0.398882 
-0.202044 
0.133988 
-0.179143 
0.425819 
0.223902 
0.138857 
-0.276559 
-0.116987 
-0.147052 
-0.333245 
-0.080498 
0.314982 
-0.084850 
0.472194 
-0.022138 
-0.477727 
-0.426176 
-0.045203 
0.427244 
0.351204 
-0.215646 
-0.194440 
0.084522 
0.154299 
0.392051 
0.054371 
0.190067 
0.345325 
-0.039465 
0.396055 
0.244207 
0.258491 
0.030043 
-0.434936 
0.184309 
-0.246055 
0.203921 
0.407750 
0.136959 
-0.443131 
-0.425495 
-0.443539 
0.371851 
-0.010344 
-0.471345 
-0.150287 
0.011929 
-0.397521 
0.304510 
-0.060827 
0.453683 
-0.411136 
0.244732 
0.038205 
0.243163 
0.136783 
-0.407424 
-0.066770 
-0.017893 
0.053111 
-0.170715 
-0.273686 
-0.188398 
0.359329 
-0.208622 
0.495912 
-0.386726 
0.495298 
0.403662 
0.250232 
-0.447833 
0.478167 
0.306693 
0.424018 
-0.032177 
0.335348 
-0.226269 
0.479752 
0.437826 
-0.421759 
-0.081075 
0.391509 
-0.332896 
-0.336343 
-0.070286 
0.410267 
0.300440 
0.022290 
-0.156503 
-0.217453 
-0.424599 
0.172782 
0.008861 
-0.112997 
0.032111 
0.300239 
-0.117085 
0.145385 
0.295537 
-0.213423 
-0.104383 
0.347705 
-0.235255 
-0.297690 
0.271723 
0.232568 
-0.462342 
-0.454546 
0.212320 
0.475484 
-0.376305 
-0.368756 
0.366993 
-0.209201 
-0.205099 
-0.203293 
-0.298933 
-0.404659 
0.318996 
0.044564 
-0.122112 
0.394397 
-0.282654 
0.386749 
-0.218599 
0.249457 
0.186988 
0.164316 
-0.105158 
-0.017475 
0.450893 
0.290458 
-0.169770 
-0.284362 
0.492768 
-0.398047 
0.448206 
-0.469574 
-0.352593 
0.160526 
-0.494090 
-0.228898 
0.291770 
0.372903 
0.061902 
-0.413329 
-0.330390 
0.262968 
-0.317988 
0.488606 
-0.192468 
0.059900 
0.383004 
0.024878 
-0.053351 
-0.335595 
-0.225665 
-0.366363 
0.328721 
0.169177 
0.116163 
0.279615 
-0.040365 
0.446393 
0.495253 
-0.047596 
-0.451654 
0.443459 
-0.017170 
-0.304247 
0.103984 
-0.011260 
-0.033145 
-0.104246 
-0.138356 
-0.471243 
-0.017574 
0.031254 
0.291725 
0.164438 
0.019860 
-0.400742 
-0.275662 
-0.097136 
0.124136 
0.170987 
0.067269 
0.398471 
0.304625 
-0.104010 
0.067648 
-0.079213 
-0.324395 
-0.472716 
-0.132820 
-0.329143 
-0.020312 
-0.084474 
-0.385684 
0.462518 
0.111279 
0.218300 
-0.048742 
-0.421865 
-0.385946 
0.312902 
-0.393108 
0.096480 
-0.155844 
0.398617 
-0.239082 
0.364016 
0.497875 
-0.014743 
-0.233120 
0.122011 
-0.343756 
0.334149 
0.020482 
0.460868 
-0.269861 
-0.411870 
-0.118344 
-0.094256 
-0.384586 
0.248836 
0.076601 
0.095102 
-0.335638 
0.190917 
0.057619 
0.275641 
-0.090783 
-0.491123 
0.353776 
0.023271 
0.321779 
0.460668 
-0.380248 
-0.334066 
0.359285 
-0.119330 
-0.470050 
0.357159 
0.365927 
-0.203170 
-0.020830 
-0.477830 
-0.369021 
0.499652 
0.483039 
-0.138881 
-0.412218 
-0.135305 
0.266863 
-0.296804 
-0.386470 
-0.156536 
0.298297 
-0.222108 
-0.465620 
-0.144084 
-0.446466 
-0.056403 
-0.135207 
0.407310 
0.466868 
-0.313428 
0.367977 
-0.413380 
-0.147494 
0.227262 
-0.032710 
-0.117543 
0.084421 
-0.166783 
0.179287 
-0.436409 
-0.144613 
0.310266 
-0.436757 
-0.161574 
-0.328615 
-0.348975 
0.203121 
0.438247 
-0.145779 
0.316651 
-0.218289 
-0.347482 
-0.405457 
-0.183909 
0.008434 
-0.351923 
0.259688 
0.373228 
-0.444613 
0.226557 
-0.440200 
0.423364 
0.313177 
-0.087694 
0.150626 
-0.219533 
0.294763 
-0.264953 
0.113683 
-0.025950 
-0.201361 
0.469070 
-0.215684 
-0.138119 
-0.192504 
-0.044299 
0.012906 
-0.489383 
-0.106052 
0.367127 
0.327268 
0.175659 
-0.480355 
0.421812 
0.491751 
0.028079 
-0.430111 
0.251439 
-0.098694 
-0.374725 
-0.022004 
-0.038894 
-0.451361 
-0.208827 
0.373412 
0.199265 
0.071639 
0.168175 
0.434312 
-0.314677 
-0.357775 
-0.267049 
-0.345607 
-0.073459 
0.094832 
-0.038110 
0.382242 
-0.392262 
-0.027493 
-0.223810 
0.474865 
-0.200225 
0.451850 
0.494510 
-0.278413 
0.443601 
0.022588 
-0.208525 
0.195040 
0.423895 
-0.083250 
-0.326964 
-0.114999 
-0.034611 
-0.035792 
-0.241587 
-0.335346 
-0.464152 
0.426588 
-0.401034 
-0.278829 
-0.431186 
-0.168083 
-0.124436 
-0.004645 
0.426749 
0.337454 
-0.122403 
-0.465513 
-0.190039 
0.153787 
-0.490648 
0.109736 
0.105637 
-0.496138 
0.331323 
0.049238 
0.026450 
-0.377202 
-0.255723 
-0.049655 
0.039549 
-0.082687 
0.335346 
-0.495062 
0.381521 
-0.406241 
-0.330408 
0.417369 
-0.479653 
-0.231442 
-0.361461 
-0.410839 
0.100475 
0.014103 
0.084516 
0.027224 
-0.148443 
0.462112 
0.061712 
0.161518 
0.115899 
0.071064 
-0.228746 
-0.278464 
0.074926 
-0.397423 
0.270774 
-0.398623 
-0.274625 
-0.484949 
0.051721 
0.264924 
-0.067636 
-0.112933 
0.269862 
-0.186115 
-0.019174 
0.439454 
-0.268747 
0.001173 
-0.291988 
-0.130207 
0.090334 
0.308488 
0.383896 
-0.325150 
-0.164288 
-0.264547 
-0.363038 
0.397424 
0.396971 
0.252861 
-0.031512 
-0.331775 
0.474398 
-0.456585 
-0.229197 
0.245172 
-0.355209 
-0.003822 
0.260223 
0.196513 
-0.238898 
-0.307414 
-0.416420 
-0.469037 
0.006471 
0.064406 
0.470417 
0.237724 
-0.434421 
-0.321570 
-0.392483 
0.155914 
0.486918 
0.491413 
0.330764 
-0.177370 
-0.273134 
0.467726 
-0.279946 
-0.376162 
0.220587 
0.188542 
-0.207937 
0.194985 
0.231957 
0.062866 
-0.059843 
0.376748 
-0.440957 
-0.299621 
0.073261 
-0.179855 
-0.107035 
0.156840 
-0.148891 
0.399437 
-0.278754 
-0.178474 
0.137161 
-0.213175 
-0.000044 
0.244678 
0.442739 
-0.013127 
0.236091 
0.273503 
0.309503 
0.462958 
0.241229 
-0.470443 
-0.413205 
-0.038184 
0.218099 
-0.121141 
-0.343199 
-0.049944 
0.441724 
0.096958 
-0.173196 
-0.499232 
0.297337 
0.400065 
-0.179087 
-0.309697 
0.056905 
0.172021 
-0.410261 
0.278152 
0.493547 
0.226900 
-0.435023 
-0.006497 
-0.028421 
-0.492284 
0.480376 
-0.292330 
0.281219 
0.289879 
-0.329372 
0.022448 
0.319436 
-0.242577 
0.484264 
0.037536 
0.136282 
-0.358935 
0.487592 
0.078006 
0.238023 
-0.185603 
0.078774 
0.035360 
-0.285538 
0.399687 
0.225663 
0.271367 
0.071708 
0.315402 
0.049519 
0.065256 
0.042302 
0.114496 
-0.441241 
-0.486119 
0.122212 
-0.460865 
-0.278449 
-0.096569 
0.329014 
-0.107821 
0.425878 
0.148451 
0.149603 
0.410142 
-0.314013 
-0.214115 
-0.448792 
-0.326421 
0.363891 
0.289231 
-0.012024 
-0.057335 
-0.175409 
0.202437 
-0.157648 
-0.449746 
-0.026195 
0.414060 
0.365657 
-0.476677 
-0.020685 
-0.092041 
0.137819 
0.038074 
-0.078160 
-0.239970 
0.077209 
0.143391 
0.163461 
-0.093776 
-0.464429 
0.089339 
-0.445325 
0.185173 
-0.000519 
-0.259338 
0.471058 
0.050689 
-0.085759 
0.334949 
-0.160080 
0.402216 
-0.222386 
0.164511 
0.104654 
0.119965 
0.214766 
-0.421542 
0.034025 
0.080422 
-0.398218 
-0.486659 
0.488382 
0.239600 
0.051415 
-0.089778 
0.499631 
-0.371376 
-0.446387 
0.163091 
0.034848 
-0.410816 
-0.247570 
0.089522 
0.274357 
0.251912 
0.330184 
0.245415 
-0.197399 
-0.255575 
0.080364 
0.142521 
-0.353359 
0.357978 
-0.192968 
0.251295 
-0.022057 
-0.478202 
0.329754 
-0.488032 
0.102221 
0.431535 
-0.474691 
0.090602 
0.171135 
0.076724 
-0.499176 
0.170766 
0.205347 
-0.445563 
-0.166143 
-0.259805 
-0.356379 
0.086287 
0.329717 
0.417979 
-0.161801 
0.159901 
0.163394 
0.140800 
0.404326 
-0.256242 
-0.216679 
-0.449033 
-0.398265 
0.090354 
0.302262 
0.079678 
0.112152 
0.132015 
0.091647 
-0.285627 
0.063550 
0.116955 
0.304975 
-0.265314 
-0.306321 
0.305799 
0.405452 
0.399026 
0.360237 
-0.260691 
-0.360779 
-0.496142 
0.325596 
0.468939 
0.421837 
-0.336204 
0.128840 
0.085230 
0.304596 
0.033165 
0.328988 
-0.412083 
0.084132 
0.430723 
0.178271 
-0.113606 
0.010402 
-0.209577 
-0.481591 
-0.397952 
0.004796 
0.081960 
0.219004 
-0.190229 
0.316646 
0.412683 
-0.384429 
0.222097 
0.311709 
0.475807 
0.461406 
0.450930 
0.479666 
0.287003 
0.419869 
0.401503 
0.450798 
0.048708 
-0.013267 
0.255394 
-0.418127 
-0.184279 
0.343312 
0.166005 
-0.253555 
0.021583 
-0.447601 
0.256846 
0.312006 
-0.429192 
0.358895 
-0.183198 
0.152768 
0.077898 
0.126573 
-0.030587 
-0.009419 
0.242143 
-0.308489 
-0.197710 
0.217951 
-0.347083 
-0.246780 
0.197616 
0.439920 
-0.326911 
0.099119 
0.390718 
0.221797 
-0.414148 
_ 
_ 
_ 
_ 
Y 
W 
A 
_ 
_ 
_ 
_ 
_ 
_ 
_ 
_ 
_ 
_ 
_ 
_ 
_ 
_ 
_ 
_ 
_ 
_ 
_ 
_ 
_ 
_ 
_ 
_ 
_ 
_ 
_ 
_ 
_ 
_ 
_ 
_ 
_ 
_ 
_ 
_ 
_ 
_ 
_ 
_ 
_ 
_ 
_ 
